digraph Tree {
node [shape=box, style="filled, rounded", color="black", fontname=helvetica] ;
edge [fontname=helvetica] ;
0 [label="petal width (cm) <= 0.8\ngini = 0.67\nsamples = 93\nvalue = [51, 51, 48]\nclass = setosa", fillcolor="#ffffff"] ;
1 [label="gini = 0.0\nsamples = 32\nvalue = [51, 0, 0]\nclass = setosa", fillcolor="#e58139"] ;
0 -> 1 [labeldistance=2.5, labelangle=45, headlabel="True"] ;
2 [label="petal length (cm) <= 4.75\ngini = 0.5\nsamples = 61\nvalue = [0, 51, 48]\nclass = versicolor", fillcolor="#f3fdf8"] ;
0 -> 2 [labeldistance=2.5, labelangle=-45, headlabel="False"] ;
3 [label="petal width (cm) <= 1.65\ngini = 0.04\nsamples = 28\nvalue = [0, 45, 1]\nclass = versicolor", fillcolor="#3de684"] ;
2 -> 3 ;
4 [label="gini = 0.0\nsamples = 27\nvalue = [0, 45, 0]\nclass = versicolor", fillcolor="#39e581"] ;
3 -> 4 ;
5 [label="gini = 0.0\nsamples = 1\nvalue = [0, 0, 1]\nclass = virginica", fillcolor="#8139e5"] ;
3 -> 5 ;
6 [label="sepal length (cm) <= 6.05\ngini = 0.2\nsamples = 33\nvalue = [0, 6, 47]\nclass = virginica", fillcolor="#9152e8"] ;
2 -> 6 ;
7 [label="sepal width (cm) <= 3.1\ngini = 0.38\nsamples = 7\nvalue = [0, 3, 9]\nclass = virginica", fillcolor="#ab7bee"] ;
6 -> 7 ;
8 [label="petal length (cm) <= 5.05\ngini = 0.18\nsamples = 6\nvalue = [0, 1, 9]\nclass = virginica", fillcolor="#8f4fe8"] ;
7 -> 8 ;
9 [label="gini = 0.0\nsamples = 3\nvalue = [0, 0, 5]\nclass = virginica", fillcolor="#8139e5"] ;
8 -> 9 ;
10 [label="sepal length (cm) <= 5.9\ngini = 0.32\nsamples = 3\nvalue = [0, 1, 4]\nclass = virginica", fillcolor="#a06aec"] ;
8 -> 10 ;
11 [label="gini = 0.0\nsamples = 2\nvalue = [0, 0, 4]\nclass = virginica", fillcolor="#8139e5"] ;
10 -> 11 ;
12 [label="gini = 0.0\nsamples = 1\nvalue = [0, 1, 0]\nclass = versicolor", fillcolor="#39e581"] ;
10 -> 12 ;
13 [label="gini = 0.0\nsamples = 1\nvalue = [0, 2, 0]\nclass = versicolor", fillcolor="#39e581"] ;
7 -> 13 ;
14 [label="sepal length (cm) <= 6.6\ngini = 0.14\nsamples = 26\nvalue = [0, 3, 38]\nclass = virginica", fillcolor="#8b49e7"] ;
6 -> 14 ;
15 [label="gini = 0.0\nsamples = 11\nvalue = [0, 0, 18]\nclass = virginica", fillcolor="#8139e5"] ;
14 -> 15 ;
16 [label="petal width (cm) <= 1.75\ngini = 0.23\nsamples = 15\nvalue = [0, 3, 20]\nclass = virginica", fillcolor="#9457e9"] ;
14 -> 16 ;
17 [label="gini = 0.0\nsamples = 2\nvalue = [0, 3, 0]\nclass = versicolor", fillcolor="#39e581"] ;
16 -> 17 ;
18 [label="gini = 0.0\nsamples = 13\nvalue = [0, 0, 20]\nclass = virginica", fillcolor="#8139e5"] ;
16 -> 18 ;
}